digraph Tree {
node [shape=box] ;
0 [label="X[72] <= -0.4295\nentropy = 0.9288\nsamples = 2144\nvalue = [96, 1664, 384]"] ;
1 [label="X[46] <= 0.0775\nentropy = 0.4745\nsamples = 285\nvalue = [29, 0, 256]"] ;
0 -> 1 [labeldistance=2.5, labelangle=45, headlabel="True"] ;
2 [label="entropy = 0.0\nsamples = 29\nvalue = [29, 0, 0]"] ;
1 -> 2 ;
3 [label="entropy = 0.0\nsamples = 256\nvalue = [0, 0, 256]"] ;
1 -> 3 ;
4 [label="X[22] <= -0.196\nentropy = 0.5817\nsamples = 1859\nvalue = [67, 1664, 128]"] ;
0 -> 4 [labeldistance=2.5, labelangle=-45, headlabel="False"] ;
5 [label="X[77] <= 0.084\nentropy = 1.5072\nsamples = 130\nvalue = [64, 34, 32]"] ;
4 -> 5 ;
6 [label="entropy = 0.0\nsamples = 64\nvalue = [64, 0, 0]"] ;
5 -> 6 ;
7 [label="X[97] <= -0.0455\nentropy = 0.9993\nsamples = 66\nvalue = [0, 34, 32]"] ;
5 -> 7 ;
8 [label="entropy = 0.0\nsamples = 32\nvalue = [0, 0, 32]"] ;
7 -> 8 ;
9 [label="entropy = 0.0\nsamples = 34\nvalue = [0, 34, 0]"] ;
7 -> 9 ;
10 [label="X[107] <= -0.2105\nentropy = 0.3277\nsamples = 1729\nvalue = [3, 1630, 96]"] ;
4 -> 10 ;
11 [label="X[76] <= 0.061\nentropy = 0.9434\nsamples = 97\nvalue = [0, 35, 62]"] ;
10 -> 11 ;
12 [label="entropy = 0.0\nsamples = 62\nvalue = [0, 0, 62]"] ;
11 -> 12 ;
13 [label="entropy = 0.0\nsamples = 35\nvalue = [0, 35, 0]"] ;
11 -> 13 ;
14 [label="X[75] <= 0.103\nentropy = 0.1654\nsamples = 1632\nvalue = [3, 1595, 34]"] ;
10 -> 14 ;
15 [label="X[107] <= -0.1995\nentropy = 0.0141\nsamples = 1565\nvalue = [0, 1563, 2]"] ;
14 -> 15 ;
16 [label="X[115] <= -0.6325\nentropy = 0.3373\nsamples = 32\nvalue = [0, 30, 2]"] ;
15 -> 16 ;
17 [label="entropy = 0.0\nsamples = 30\nvalue = [0, 30, 0]"] ;
16 -> 17 ;
18 [label="entropy = 0.0\nsamples = 2\nvalue = [0, 0, 2]"] ;
16 -> 18 ;
19 [label="entropy = 0.0\nsamples = 1533\nvalue = [0, 1533, 0]"] ;
15 -> 19 ;
20 [label="X[10] <= -0.065\nentropy = 1.219\nsamples = 67\nvalue = [3, 32, 32]"] ;
14 -> 20 ;
21 [label="entropy = 0.0\nsamples = 32\nvalue = [0, 32, 0]"] ;
20 -> 21 ;
22 [label="X[42] <= 0.045\nentropy = 0.422\nsamples = 35\nvalue = [3, 0, 32]"] ;
20 -> 22 ;
23 [label="entropy = 0.0\nsamples = 3\nvalue = [3, 0, 0]"] ;
22 -> 23 ;
24 [label="entropy = 0.0\nsamples = 32\nvalue = [0, 0, 32]"] ;
22 -> 24 ;
}